<?xml version="1.0"?>
<opencv_storage>
<cascade>
  <stageType>BOOST</stageType>
  <featureType>HAAR</featureType>
  <height>24</height>
  <width>36</width>
  <stageParams>
    <boostType>GAB</boostType>
    <minHitRate>9.9500000476837158e-01</minHitRate>
    <maxFalseAlarm>5.0000000000000000e-01</maxFalseAlarm>
    <weightTrimRate>9.4999998807907104e-01</weightTrimRate>
    <maxDepth>1</maxDepth>
    <maxWeakCount>100</maxWeakCount></stageParams>
  <featureParams>
    <maxCatCount>0</maxCatCount>
    <featSize>1</featSize>
    <mode>BASIC</mode></featureParams>
  <stageNum>14</stageNum>
  <stages>
    <!-- stage 0 -->
    <_>
      <maxWeakCount>2</maxWeakCount>
      <stageThreshold>-5.6035569868981838e-03</stageThreshold>
      <weakClassifiers>
        <_>
          <internalNodes>
            0 -1 16 -9.3885973095893860e-02</internalNodes>
          <leafValues>
            9.6666663885116577e-01 -6.7567569017410278e-01</leafValues></_>
        <_>
          <internalNodes>
            0 -1 3 -6.4870058558881283e-03</internalNodes>
          <leafValues>
            7.3001116514205933e-01 -9.7227025032043457e-01</leafValues></_></weakClassifiers></_>
    <!-- stage 1 -->
    <_>
      <maxWeakCount>3</maxWeakCount>
      <stageThreshold>-7.3925501108169556e-01</stageThreshold>
      <weakClassifiers>
        <_>
          <internalNodes>
            0 -1 14 -2.7775662019848824e-02</internalNodes>
          <leafValues>
            1. -7.5000000000000000e-01</leafValues></_>
        <_>
          <internalNodes>
            0 -1 10 -5.2548632025718689e-02</internalNodes>
          <leafValues>
            8.8160967826843262e-01 -7.2736018896102905e-01</leafValues></_>
        <_>
          <internalNodes>
            0 -1 12 4.1192127391695976e-03</internalNodes>
          <leafValues>
            -8.7086468935012817e-01 8.5473376512527466e-01</leafValues></_></weakClassifiers></_>
    <!-- stage 2 -->
    <_>
      <maxWeakCount>2</maxWeakCount>
      <stageThreshold>-1.4445865526795387e-02</stageThreshold>
      <weakClassifiers>
        <_>
          <internalNodes>
            0 -1 0 -2.1176639944314957e-02</internalNodes>
          <leafValues>
            9.0769231319427490e-01 -7.3913043737411499e-01</leafValues></_>
        <_>
          <internalNodes>
            0 -1 13 -3.0760912341065705e-04</internalNodes>
          <leafValues>
            7.4588447809219360e-01 -9.2213815450668335e-01</leafValues></_></weakClassifiers></_>
    <!-- stage 3 -->
    <_>
      <maxWeakCount>2</maxWeakCount>
      <stageThreshold>-1.6994709149003029e-02</stageThreshold>
      <weakClassifiers>
        <_>
          <internalNodes>
            0 -1 15 -2.5615775585174561e-01</internalNodes>
          <leafValues>
            9.6491229534149170e-01 -6.1038959026336670e-01</leafValues></_>
        <_>
          <internalNodes>
            0 -1 5 -7.4566714465618134e-04</internalNodes>
          <leafValues>
            5.9339487552642822e-01 -1.</leafValues></_></weakClassifiers></_>
    <!-- stage 4 -->
    <_>
      <maxWeakCount>3</maxWeakCount>
      <stageThreshold>-8.5295504331588745e-01</stageThreshold>
      <weakClassifiers>
        <_>
          <internalNodes>
            0 -1 18 -1.2278898060321808e-01</internalNodes>
          <leafValues>
            8.4615385532379150e-01 -6.8115943670272827e-01</leafValues></_>
        <_>
          <internalNodes>
            0 -1 9 -3.7724185734987259e-02</internalNodes>
          <leafValues>
            7.3425704240798950e-01 -7.6649057865142822e-01</leafValues></_>
        <_>
          <internalNodes>
            0 -1 29 1.8912199884653091e-03</internalNodes>
          <leafValues>
            -8.5357320308685303e-01 5.9469497203826904e-01</leafValues></_></weakClassifiers></_>
    <!-- stage 5 -->
    <_>
      <maxWeakCount>2</maxWeakCount>
      <stageThreshold>4.6836353838443756e-02</stageThreshold>
      <weakClassifiers>
        <_>
          <internalNodes>
            0 -1 21 -1.1776363849639893e-01</internalNodes>
          <leafValues>
            1. -5.5555558204650879e-01</leafValues></_>
        <_>
          <internalNodes>
            0 -1 25 -2.4548585060983896e-03</internalNodes>
          <leafValues>
            6.0239189863204956e-01 -1.</leafValues></_></weakClassifiers></_>
    <!-- stage 6 -->
    <_>
      <maxWeakCount>2</maxWeakCount>
      <stageThreshold>-1.4899115264415741e-01</stageThreshold>
      <weakClassifiers>
        <_>
          <internalNodes>
            0 -1 30 -3.2258383929729462e-02</internalNodes>
          <leafValues>
            8.4848487377166748e-01 -7.0588237047195435e-01</leafValues></_>
        <_>
          <internalNodes>
            0 -1 4 2.0065532589796931e-04</internalNodes>
          <leafValues>
            -1. 5.5689120292663574e-01</leafValues></_></weakClassifiers></_>
    <!-- stage 7 -->
    <_>
      <maxWeakCount>2</maxWeakCount>
      <stageThreshold>4.5895716175436974e-03</stageThreshold>
      <weakClassifiers>
        <_>
          <internalNodes>
            0 -1 1 -4.2038597166538239e-02</internalNodes>
          <leafValues>
            8.5507243871688843e-01 -7.8461539745330811e-01</leafValues></_>
        <_>
          <internalNodes>
            0 -1 11 -6.7335136234760284e-02</internalNodes>
          <leafValues>
            7.8920495510101318e-01 -7.9580897092819214e-01</leafValues></_></weakClassifiers></_>
    <!-- stage 8 -->
    <_>
      <maxWeakCount>2</maxWeakCount>
      <stageThreshold>-1.4510588720440865e-02</stageThreshold>
      <weakClassifiers>
        <_>
          <internalNodes>
            0 -1 22 -2.3333536460995674e-02</internalNodes>
          <leafValues>
            9.3650794029235840e-01 -7.1830987930297852e-01</leafValues></_>
        <_>
          <internalNodes>
            0 -1 27 4.6009695506654680e-04</internalNodes>
          <leafValues>
            -8.4258604049682617e-01 7.0379924774169922e-01</leafValues></_></weakClassifiers></_>
    <!-- stage 9 -->
    <_>
      <maxWeakCount>3</maxWeakCount>
      <stageThreshold>-9.1707545518875122e-01</stageThreshold>
      <weakClassifiers>
        <_>
          <internalNodes>
            0 -1 17 -9.6094340085983276e-02</internalNodes>
          <leafValues>
            1. -7.0270270109176636e-01</leafValues></_>
        <_>
          <internalNodes>
            0 -1 8 -1.0973967611789703e-02</internalNodes>
          <leafValues>
            -8.1321150064468384e-01 8.0615049600601196e-01</leafValues></_>
        <_>
          <internalNodes>
            0 -1 2 2.1508477220777422e-04</internalNodes>
          <leafValues>
            5.9883874654769897e-01 -9.7924780845642090e-01</leafValues></_></weakClassifiers></_>
    <!-- stage 10 -->
    <_>
      <maxWeakCount>2</maxWeakCount>
      <stageThreshold>-2.6265824213624001e-02</stageThreshold>
      <weakClassifiers>
        <_>
          <internalNodes>
            0 -1 19 -1.7864477634429932e-01</internalNodes>
          <leafValues>
            1. -6.8000000715255737e-01</leafValues></_>
        <_>
          <internalNodes>
            0 -1 24 -1.5515807899646461e-04</internalNodes>
          <leafValues>
            -8.5068106651306152e-01 6.5373414754867554e-01</leafValues></_></weakClassifiers></_>
    <!-- stage 11 -->
    <_>
      <maxWeakCount>2</maxWeakCount>
      <stageThreshold>-1.3602791354060173e-02</stageThreshold>
      <weakClassifiers>
        <_>
          <internalNodes>
            0 -1 6 -8.5825764108449221e-04</internalNodes>
          <leafValues>
            -6.9014084339141846e-01 9.0476191043853760e-01</leafValues></_>
        <_>
          <internalNodes>
            0 -1 7 -1.1952230124734342e-04</internalNodes>
          <leafValues>
            -8.6947977542877197e-01 6.7653805017471313e-01</leafValues></_></weakClassifiers></_>
    <!-- stage 12 -->
    <_>
      <maxWeakCount>2</maxWeakCount>
      <stageThreshold>2.6409476995468140e-02</stageThreshold>
      <weakClassifiers>
        <_>
          <internalNodes>
            0 -1 20 -1.0072740912437439e-01</internalNodes>
          <leafValues>
            9.6491229534149170e-01 -6.1038959026336670e-01</leafValues></_>
        <_>
          <internalNodes>
            0 -1 28 -2.7728350687539205e-05</internalNodes>
          <leafValues>
            6.3679909706115723e-01 -1.</leafValues></_></weakClassifiers></_>
    <!-- stage 13 -->
    <_>
      <maxWeakCount>2</maxWeakCount>
      <stageThreshold>-3.3119913190603256e-02</stageThreshold>
      <weakClassifiers>
        <_>
          <internalNodes>
            0 -1 23 -1.3459026813507080e-01</internalNodes>
          <leafValues>
            9.6610170602798462e-01 -6.5333330631256104e-01</leafValues></_>
        <_>
          <internalNodes>
            0 -1 26 -1.7197968554683030e-04</internalNodes>
          <leafValues>
            -8.0372172594070435e-01 6.2021338939666748e-01</leafValues></_></weakClassifiers></_></stages>
  <features>
    <_>
      <rects>
        <_>
          0 0 18 12 -1.</_>
        <_>
          0 0 9 6 2.</_>
        <_>
          9 6 9 6 2.</_></rects>
      <tilted>0</tilted></_>
    <_>
      <rects>
        <_>
          0 0 27 18 -1.</_>
        <_>
          0 6 27 6 3.</_></rects>
      <tilted>0</tilted></_>
    <_>
      <rects>
        <_>
          0 8 2 3 -1.</_>
        <_>
          0 9 2 1 3.</_></rects>
      <tilted>0</tilted></_>
    <_>
      <rects>
        <_>
          0 18 19 6 -1.</_>
        <_>
          0 21 19 3 2.</_></rects>
      <tilted>0</tilted></_>
    <_>
      <rects>
        <_>
          1 0 1 8 -1.</_>
        <_>
          1 4 1 4 2.</_></rects>
      <tilted>0</tilted></_>
    <_>
      <rects>
        <_>
          1 22 21 2 -1.</_>
        <_>
          1 23 21 1 2.</_></rects>
      <tilted>0</tilted></_>
    <_>
      <rects>
        <_>
          2 14 10 1 -1.</_>
        <_>
          7 14 5 1 2.</_></rects>
      <tilted>0</tilted></_>
    <_>
      <rects>
        <_>
          3 7 2 4 -1.</_>
        <_>
          3 9 2 2 2.</_></rects>
      <tilted>0</tilted></_>
    <_>
      <rects>
        <_>
          3 18 16 3 -1.</_>
        <_>
          11 18 8 3 2.</_></rects>
      <tilted>0</tilted></_>
    <_>
      <rects>
        <_>
          4 6 24 10 -1.</_>
        <_>
          12 6 8 10 3.</_></rects>
      <tilted>0</tilted></_>
    <_>
      <rects>
        <_>
          6 2 12 14 -1.</_>
        <_>
          12 2 6 14 2.</_></rects>
      <tilted>0</tilted></_>
    <_>
      <rects>
        <_>
          6 3 14 14 -1.</_>
        <_>
          13 3 7 14 2.</_></rects>
      <tilted>0</tilted></_>
    <_>
      <rects>
        <_>
          7 1 27 2 -1.</_>
        <_>
          16 1 9 2 3.</_></rects>
      <tilted>0</tilted></_>
    <_>
      <rects>
        <_>
          8 18 20 2 -1.</_>
        <_>
          8 19 20 1 2.</_></rects>
      <tilted>0</tilted></_>
    <_>
      <rects>
        <_>
          10 1 11 10 -1.</_>
        <_>
          10 6 11 5 2.</_></rects>
      <tilted>0</tilted></_>
    <_>
      <rects>
        <_>
          10 14 26 10 -1.</_>
        <_>
          23 14 13 10 2.</_></rects>
      <tilted>0</tilted></_>
    <_>
      <rects>
        <_>
          12 5 22 16 -1.</_>
        <_>
          12 5 11 8 2.</_>
        <_>
          23 13 11 8 2.</_></rects>
      <tilted>0</tilted></_>
    <_>
      <rects>
        <_>
          12 5 24 16 -1.</_>
        <_>
          12 5 12 8 2.</_>
        <_>
          24 13 12 8 2.</_></rects>
      <tilted>0</tilted></_>
    <_>
      <rects>
        <_>
          12 14 24 6 -1.</_>
        <_>
          24 14 12 6 2.</_></rects>
      <tilted>0</tilted></_>
    <_>
      <rects>
        <_>
          12 14 24 8 -1.</_>
        <_>
          24 14 12 8 2.</_></rects>
      <tilted>0</tilted></_>
    <_>
      <rects>
        <_>
          14 4 22 16 -1.</_>
        <_>
          14 4 11 8 2.</_>
        <_>
          25 12 11 8 2.</_></rects>
      <tilted>0</tilted></_>
    <_>
      <rects>
        <_>
          14 18 22 5 -1.</_>
        <_>
          25 18 11 5 2.</_></rects>
      <tilted>0</tilted></_>
    <_>
      <rects>
        <_>
          15 0 6 12 -1.</_>
        <_>
          15 6 6 6 2.</_></rects>
      <tilted>0</tilted></_>
    <_>
      <rects>
        <_>
          15 14 20 8 -1.</_>
        <_>
          25 14 10 8 2.</_></rects>
      <tilted>0</tilted></_>
    <_>
      <rects>
        <_>
          16 19 12 4 -1.</_>
        <_>
          20 19 4 4 3.</_></rects>
      <tilted>0</tilted></_>
    <_>
      <rects>
        <_>
          16 19 12 4 -1.</_>
        <_>
          16 21 12 2 2.</_></rects>
      <tilted>0</tilted></_>
    <_>
      <rects>
        <_>
          16 22 1 2 -1.</_>
        <_>
          16 23 1 1 2.</_></rects>
      <tilted>0</tilted></_>
    <_>
      <rects>
        <_>
          18 2 18 1 -1.</_>
        <_>
          24 2 6 1 3.</_></rects>
      <tilted>0</tilted></_>
    <_>
      <rects>
        <_>
          23 22 2 2 -1.</_>
        <_>
          23 23 2 1 2.</_></rects>
      <tilted>0</tilted></_>
    <_>
      <rects>
        <_>
          24 0 12 4 -1.</_>
        <_>
          28 0 4 4 3.</_></rects>
      <tilted>0</tilted></_>
    <_>
      <rects>
        <_>
          30 1 6 16 -1.</_>
        <_>
          30 9 6 8 2.</_></rects>
      <tilted>0</tilted></_></features></cascade>
</opencv_storage>
